//
// Created by trongan93 on 12/15/22.
//

#ifndef INFERENCE_QZERODCE_WEIGHT_H
#define INFERENCE_QZERODCE_WEIGHT_H

const short conv1_w[864] = {
        40, -841, 314, -1260, 112, -373, 1472, 606, 256, -451, -219, 1892, -176, -610, -478, 780,
        -750, 706, -398, -835, 73, -965, -380, 273, 931, -480, 1570, 628, -1055, -1551, 286, 1833,
        -397, -862, 882, -147, 320, 1010, -2103, 1469, -546, 795, -1009, 1190, -459, 298, 1422, 1464,
        479, -250, 462, -1228, -785, -2124, 1017, 544, -1405, -410, -48, -682, 517, 39, -1394, -204,
        332, -83, -269, 159, 626, 180, -683, 158, 23, 570, -151, 197, 318, 212, -1058, -511,
        -230, -1257, 647, -1524, 986, 1428, -609, 644, -384, -710, -439, 506, -452, 310, 317, 985,
        86, 89, -351, 470, -1081, -2238, -1103, -910, -364, -118, 153, 303, -42, -39, -42, -38,
        -36, -41, 0, 5, -9, -43, -38, -42, -39, -33, -41, 2, 19, 2, -39, -32,
        -40, -28, -20, -39, 18, 23, 0, 0, 0, 0, 0, 0, 0, 0, 0, 0,
        0, 0, 0, 0, 0, 0, 0, 0, 0, 0, 0, 0, 0, 0, 0, 0,
        0, 0, -52, 146, 384, -714, 833, 337, -911, -67, -258, -22, 613, -1001, 891, -48,
        -77, -860, 234, 950, -656, -472, 505, -741, -183, -109, -1706, 135, -1317, -1961, -299, -1434,
        -1706, -98, -2077, -2585, 383, -1613, 1289, 1584, 1464, -58, 1417, 305, 2774, 1070, 211, -502,
        413, -728, 1747, -1197, 1646, -1020, -175, 955, 882, 76, 1026, -665, 459, 636, 465, 314,
        390, -982, -267, 689, 484, -1064, -71, 609, 254, 916, -590, -745, -479, 191, 456, 628,
        -834, -407, 979, -268, 566, -1297, -397, 231, -1235, -230, 474, -1354, 0, 770, -1640, 0,
        602, -1501, 19, 822, -1643, -286, 330, -1271, -313, 48, -1132, -232, 335, -1214, 2, -16,
        -10, -6, -25, -17, 0, -17, -11, 2, -17, -14, -5, -26, -21, 2, -17, -13,
        2, -17, -13, -5, -26, -21, 0, -18, -15, 0, 0, 0, 0, 0, 0, 0,
        0, 0, 0, 0, 0, 0, 0, 0, 0, 0, 0, 0, 0, 0, 0, 0,
        0, 0, 0, 0, -204, -571, -255, 666, 254, 599, -1828, -1447, -1552, 174, 122, 277,
        1052, 751, 1041, -1672, -1205, -1296, -476, -528, -314, 131, -106, 176, -964, -444, -482, 0,
        0, 0, 0, 0, 0, 0, 0, 0, 0, 0, 0, 0, 0, 0, 0, 0,
        0, 0, 0, 0, 0, 0, 0, 0, 0, 0, 1303, 1806, 229, 174, -1447, 2242,
        2766, 1981, 1892, 172, -1124, -1650, 792, 66, -1692, 845, -1051, -51, -344, 389, 537, -805,
        -472, 904, -964, -358, 68, -865, -566, -698, 65, 720, -219, -202, -847, 77, 1834, -755,
        -730, 751, -369, 894, 1596, 50, 1231, 384, 1776, -1283, 47, -1584, -454, -17, 570, -400,
        -23, -17, -22, -17, -13, -17, -22, -18, -20, -25, -19, -23, -18, -14, -18, -23,
        -19, -21, -21, -16, -21, -15, -12, -16, -20, -18, -20, 1885, 287, 2416, -168, 438,
        -308, -1852, 527, -13, -166, 797, 478, 58, -2168, -8, 639, -665, -388, -845, 681, -1398,
        -534, 829, -228, 1426, 13, 1335, 135, -553, 301, -1499, -1323, 247, 52, 1001, -815, -1953,
        565, 251, -172, 1685, -1832, -921, -800, -562, -1751, -755, -630, 973, 1678, 1202, -988, 687,
        889, 0, 0, 0, 0, 0, 0, 0, 0, 0, 0, 0, 0, 0, 0, 0,
        0, 0, 0, 0, 0, 0, 0, 0, 0, 0, 0, 0, 0, 0, 0, 0,
        0, 0, 0, 0, 0, 0, 0, 0, 0, 0, 0, 0, 0, 0, 0, 0,
        0, 0, 0, 0, 0, 0, 0, -45, -52, -43, -43, -57, -51, -37, -55, -52,
        -56, -64, -53, -54, -68, -62, -47, -66, -62, -59, -67, -55, -57, -73, -65, -50,
        -81, -67, -2514, -1777, -2213, 631, 330, 641, -294, -191, -53, -3089, -1696, -2088, 574, 310,
        672, -304, -261, -270, 222, 960, 635, 868, 779, 672, 27, -537, -55, 110, -1459, -573,
        -301, -1255, -148, 202, -93, 90, 1150, -1597, -1064, 754, -848, 438, 761, -1608, 469, 1734,
        1007, 2597, -448, 255, -316, 1053, 1341, 1365, 1584, 875, 1508, 1559, 790, 1155, 1471, 344,
        2002, -407, -18, -549, -962, 118, -1284, 617, -344, -412, -699, -677, -384, -814, -145, -109,
        -1173, -293, -528, 529, -176, -755, -288, 89, -1048, -237, -476, -412, 875, 1332, 2566, 978,
        -276, 1374, 1984, 951, 2194, -1342, -1251, -1737, -759, 413, -462, -1677, -632, -1727, 1015, -1002,
        882, -51, -948, -503, -684, -748, 258, 888, -777, 1807, 573, 414, 880, 1631, -300, -1265,
        -1856, -440, -593, -409, -819, -1188, -189, -430, -273, -914, 807, 852, 1258, -2031, 1537, -164,
        -918, 1308, 1606, 824, 8, -385, -44, -188, 664, 879, 224, -664, -1241, 769, 490, 1301,
        -2073, -1667, -1884, -154, -22, -334, -69, -35, -599, 11, 174, 0, 104, -29, -300, 20,
        -119, -657, -58, 191, 52, 87, -93, -218, -44, -74, -377, 50, 24, 51, 63, -116,
        -113, -202, -46, -44, -125, -77, -81, -151, -112, -125, -197, -68, -78, -147, -77, -90,
        -146, -76, -56, -144, -76, -56, -139, -132, -118, -185, -2015, 1325, 1391, -235, -1833, -512,
        -2179, 886, 1725, -795, -1650, 686, 1221, -245, -681, 1053, 798, 468, 1828, -488, -971, -645,
        859, 570, 1424, -84, -2206, -1372, 207, -238, 205, -559, 247, -858, 248, -419, 385, 251,
        790, -35, 76, 282, -12, 425, -95, -992, -595, -915, -486, -705, -806, -288, -1111, -1152};

const int conv1_b[32] = {
        -10282773, -317322, 48346740, 28768858, -853911, -4297, 25705748, 65008, 16874798, 2462045, -597531, 0, 3528686, 0, 16696263, 31390802,
        -3342, -220283, 39286116, 0, -21114, 20345, 3999688, 36285088, -16407146, -1050193, 38109592, 26790074, 584421, 662542, 22596256, 24409544};

const short conv2_w[9216] = {
        215, 35, -9, 87, -598, 15, 118, 74, 380, -20, 344, 35, 207, 358, 167, -87,
        1, -86, 652, 473, -216, 236, 185, -251, -42, -69, -481, -514, -489, -560, 111, 214,
        287, 313, 495, 465, 0, 0, 0, 0, 0, 0, 0, 0, 0, 0, 0, 0,
        0, 0, 0, 0, 0, 0, -151, -86, -15, 85, 146, 171, 177, 192, 299, 564,
        533, -225, -95, -103, -675, -161, -40, -865, -253, -10, -3, -107, 265, 186, 167, 616,
        555, -87, 94, 478, -112, 13, 278, -25, 113, 271, 0, 0, 0, 0, 0, 0,
        0, 0, 0, 0, 0, 0, 0, 0, 0, 0, 0, 0, 5, 50, 14, -59,
        12, 26, -143, -48, -29, 0, 0, 0, 0, 0, 0, 0, 0, 0, -680, -344,
        38, -396, -250, 157, -267, 174, 825, 368, 304, 47, -36, -139, 31, -264, -312, 27,
        0, 0, 0, 0, 0, 0, 0, 0, 0, -388, -38, 382, 69, 370, 202, 253,
        179, 5, -196, -391, -918, 457, -291, -551, 469, -159, -336, 0, 0, 0, 0, 0,
        0, 0, 0, 0, 0, 0, 0, 0, 0, 0, 0, 0, 0, 0, 0, 0,
        0, 0, 0, 0, 0, 0, -347, -508, -183, 287, 394, 608, 431, 448, 369, 1564,
        1172, 440, 81, 111, -766, -31, 84, -928, 671, 247, -90, 333, 43, -341, 326, -90,
        -519, 353, 77, 331, -52, -392, -360, -137, -289, -257, -68, -140, 316, 94, -378, 222,
        270, -97, 360, -11, 83, 527, -213, -138, 198, 72, 42, 356, -113, -105, -103, 47,
        72, 43, -74, -52, -61, -14, -14, -18, -1, -1, -9, 8, 10, 1, 530, 120,
        -250, 14, -297, -438, -79, -287, 85, -60, 4, 34, 252, -131, -94, 364, 197, 225,
        -128, -28, 148, -208, 85, 252, -202, 115, 448, -551, -402, 91, -596, -668, 150, 119,
        0, 711, -90, 42, -260, -191, 8, -158, -122, -12, -127, -60, 47, -349, -304, -155,
        -382, -36, -116, -392, 0, 0, 0, 0, 0, 0, 0, 0, 0, 0, 0, 0,
        0, 0, 0, 0, 0, 0, 207, -116, -102, 182, -43, -56, 202, -373, -293, -123,
        -51, 150, 121, 158, 438, -139, -14, 223, -97, 98, 199, 102, 425, 420, 82, 610,
        674, -21, 18, -318, -20, 17, -286, -11, 25, -263, 0, 0, 0, 0, 0, 0,
        0, 0, 0, 0, 0, 0, 0, 0, 0, 0, 0, 0, 42, 42, 25, -19,
        -17, -16, -87, -113, -154, 0, 0, 0, 0, 0, 0, 0, 0, 0, -362, -76,
        -230, -161, 48, 28, -24, 325, 531, -95, 42, -116, -3, -113, 72, 61, -8, 333,
        0, 0, 0, 0, 0, 0, 0, 0, 0, -285, -274, -146, -59, 30, 198, -329,
        -211, 19, -40, -570, -540, -124, -365, -341, -170, -482, -480, 0, 0, 0, 0, 0,
        0, 0, 0, 0, 0, 0, 0, 0, 0, 0, 0, 0, 0, 0, 0, 0,
        0, 0, 0, 0, 0, 0, 38, 31, -17, 162, 176, 121, 12, 0, -9, -722,
        -4, -61, -266, 110, 69, -172, 2, 212, -237, -142, 10, -62, 87, 146, 50, 180,
        298, 110, 138, 52, 41, 283, 260, 99, 274, 143, -110, -7, 215, -5, 285, 135,
        -343, -142, -533, 199, 90, 243, 171, 174, 327, 199, 353, 405, 15, 25, 39, -17,
        -13, 2, 18, 15, 16, 0, 0, 0, 0, 0, 0, 0, 0, 0, -163, -311,
        196, 145, -155, 200, 182, -23, 152, 75, -293, -256, 98, -147, -104, 55, -167, -142,
        41, -22, 7, -18, -44, 9, 5, -2, 50, 199, 410, 279, 575, 627, 539, 457,
        387, 261, 34, 314, 136, 26, 499, 238, 570, 490, 352, -214, -239, -123, -304, -43,
        -97, -2, -5, 61, 0, 0, 0, 0, 0, 0, 0, 0, 0, 0, 0, 0,
        0, 0, 0, 0, 0, 0, -276, -236, -121, -559, -274, -306, -242, -311, -221, 398,
        317, -89, 203, 343, 75, -177, 17, -324, -140, -364, -143, -423, -386, -190, -410, -411,
        -327, -3, 147, 261, -13, 132, 242, -15, 114, 256, 0, 0, 0, 0, 0, 0,
        0, 0, 0, 0, 0, 0, 0, 0, 0, 0, 0, 0, -9, -20, -8, 55,
        70, 75, 122, 76, 97, 0, 0, 0, 0, 0, 0, 0, 0, 0, -1020, -890,
        -701, -1268, -1040, -826, -1339, -1080, -709, -232, 116, 59, -494, 104, -75, -605, -219, -217,
        0, 0, 0, 0, 0, 0, 0, 0, 0, -98, -218, -317, -122, -86, -41, 364,
        298, 153, 275, 168, -90, 633, 904, 438, 839, 788, 429, 0, 0, 0, 0, 0,
        0, 0, 0, 0, 0, 0, 0, 0, 0, 0, 0, 0, 0, 0, 0, 0,
        0, 0, 0, 0, 0, 0, 119, 124, 234, 687, 729, 782, 538, 543, 661, -332,
        -310, -346, -385, -168, -168, -498, -336, -169, 27, 18, 71, 6, 6, 74, 0, 18,
        117, -20, -2, -53, -34, -7, -45, -48, -2, -29, -162, -272, -209, -413, -221, -196,
        -208, -255, 155, -347, -322, -232, -523, -382, -300, -318, -472, -310, 0, 0, 0, -2,
        -2, -1, -1, -1, 0, 0, 0, 0, -2, -2, -3, -1, -3, -2, 24, 217,
        -263, -249, 311, -114, -327, 284, -56, -397, -438, -297, -626, -481, -428, -463, -539, -307,
        31, 169, 217, 29, 176, 189, -25, 146, 57, 98, -2, 179, -299, -233, -100, -20,
        55, 326, -646, -248, -606, -312, 399, -200, -741, -112, -556, 125, 344, 377, -26, 330,
        336, -427, -145, -8, 0, 0, 0, 0, 0, 0, 0, 0, 0, 0, 0, 0,
        0, 0, 0, 0, 0, 0, 12, 292, -94, 146, 479, -22, -17, 241, -98, -144,
        -34, -480, -192, -75, -492, -188, -118, -477, -475, 268, -388, -366, 189, -399, -618, -84,
        -698, -32, -27, -107, -48, -15, -97, -50, -72, -55, 0, 0, 0, 0, 0, 0,
        0, 0, 0, 0, 0, 0, 0, 0, 0, 0, 0, 0, -70, -24, -44, -146,
        -116, -164, -92, -86, -133, 0, 0, 0, 0, 0, 0, 0, 0, 0, -694, -221,
        -45, -460, -4, 76, -961, -400, -201, -549, -153, -107, -408, 196, 166, -900, -481, -355,
        0, 0, 0, 0, 0, 0, 0, 0, 0, -504, -226, -198, -200, 6, -77, -278,
        -19, -181, -200, 336, -468, 2, 596, -225, -281, -129, -680, 0, 0, 0, 0, 0,
        0, 0, 0, 0, 0, 0, 0, 0, 0, 0, 0, 0, 0, 0, 0, 0,
        0, 0, 0, 0, 0, 0, -166, -275, -338, -324, -343, -395, -156, -177, -183, -1184,
        -536, -782, -563, 48, -306, -1082, -780, -1021, -326, -304, -397, -152, -97, -214, -242, -169,
        -288, -221, -286, -329, -212, -288, -358, -202, -256, -326, -460, 201, -231, -50, 660, 193,
        -505, -41, -510, -484, -14, -326, -232, 323, 0, -443, 195, -401, -10, -9, -4, -18,
        -18, -14, -22, -22, -20, -12, -9, -8, -18, -12, -14, -16, -14, -13, -501, 208,
        -296, -226, 411, -36, -547, -183, -578, 94, 335, 277, 241, 510, 476, -77, 198, 75,
        253, -253, -158, -142, 224, 157, -338, -172, -971, -219, -87, 6, -17, 727, 89, -205,
        144, 352, 724, 273, 64, 546, 327, -131, 147, -472, -863, 715, 45, -187, 266, 20,
        -633, 608, -56, -941, 0, 0, 0, 0, 0, 0, 0, 0, 0, 0, 0, 0,
        0, 0, 0, 0, 0, 0, 505, 176, 75, 0, -502, -354, 117, 3, -341, -797,
        -193, -30, -541, 604, 18, 120, 868, 772, 628, -170, -61, 540, -414, 96, 103, -163,
        1026, 0, -41, 1199, -35, -8, 1256, -231, -372, 1265, 0, 0, 0, 0, 0, 0,
        0, 0, 0, 0, 0, 0, 0, 0, 0, 0, 0, 0, 180, 20, 19, -7,
        -12, 88, 310, 730, 1363, 0, 0, 0, 0, 0, 0, 0, 0, 0, 208, -320,
        -318, 366, 6, -155, 332, -65, -158, 158, -62, -677, 81, 453, -923, 32, 271, -262,
        0, 0, 0, 0, 0, 0, 0, 0, 0, -235, 6, 6, -49, -268, -530, -17,
        -347, 174, 708, -54, -319, -502, -243, -429, -825, -451, -467, 0, 0, 0, 0, 0,
        0, 0, 0, 0, 0, 0, 0, 0, 0, 0, 0, 0, 0, 0, 0, 0,
        0, 0, 0, 0, 0, 0, -1304, -221, 629, -402, -189, 105, -13, 291, 329, 194,
        387, 153, 493, 151, 345, 215, -204, 514, -692, -68, 18, -563, -85, 306, -306, -223,
        307, -1456, -813, 884, -154, -464, 1091, 187, 193, 2135, 464, 29, 27, 234, -392, 199,
        261, 66, -736, 494, 233, 5, 79, -52, -322, 296, -257, -369, 48, 79, 115, 25,
        6, -46, 104, 136, 259, 32, 18, -17, 14, -2, -39, -28, -43, -70, 45, -165,
        -405, -648, -315, -684, -656, 121, -667, 1140, 288, -78, 177, 405, 36, 211, -24, -1359,
        102, -28, -355, 188, -30, -196, 433, 140, -595, -33, 156, 340, 78, 379, 238, 199,
        349, 231, -70, -81, -166, -137, 128, 165, 433, 600, -282, 204, -1, -933, 913, 312,
        -652, 347, 124, -423, 0, 0, 0, 0, 0, 0, 0, 0, 0, 0, 0, 0,
        0, 0, 0, 0, 0, 0, 345, 289, -72, 438, 221, 374, 782, -160, -89, -285,
        -320, 515, -171, 160, 24, -28, -383, 329, 534, -451, 300, 445, 252, -369, -136, -575,
        -368, 73, -63, 1357, 3, -195, 898, 110, -29, 607, 0, 0, 0, 0, 0, 0,
        0, 0, 0, 0, 0, 0, 0, 0, 0, 0, 0, 0, -128, -146, -233, 129,
        84, 68, -760, -583, -353, 0, 0, 0, 0, 0, 0, 0, 0, 0, 261, -3,
        -460, 393, 584, 230, 436, 30, -734, 58, -90, -608, 915, -99, -434, 326, 51, -186,
        0, 0, 0, 0, 0, 0, 0, 0, 0, 0, 289, 408, 296, 403, -36, 83,
        200, 39, -65, 289, -78, -45, 334, 315, -288, 3, 334, 0, 0, 0, 0, 0,
        0, 0, 0, 0, 0, 0, 0, 0, 0, 0, 0, 0, 0, 0, 0, 0,
        0, 0, 0, 0, 0, 0, -381, 87, 684, -54, -238, -249, -324, -213, -50, 94,
        418, 181, 316, -239, -40, -466, 319, 591, -407, -143, 182, -207, -363, 86, 11, 35,
        275, 500, -90, 576, 440, -215, 399, 668, 225, 423, 701, 144, -439, 558, 124, -320,
        358, -279, -68, 347, 317, -49, 1402, -18, -603, 1008, -440, -243, -77, -63, 21, -30,
        -46, -43, -109, -57, -36, -8, -15, -26, -3, -14, -32, 12, 3, -16, 447, 416,
        577, 759, 213, -243, 739, 637, 268, 142, -116, -384, 43, -100, -103, 557, -18, -293,
        614, 718, 854, 388, 522, 583, 173, -15, 234, 79, -261, -342, 400, 357, -319, -260,
        -171, -581, -80, 136, 147, 996, 225, 560, -4, 583, -197, 55, 84, -123, 166, -208,
        -476, -261, -614, -848, 0, 0, 0, 0, 0, 0, 0, 0, 0, 0, 0, 0,
        0, 0, 0, 0, 0, 0, 46, -503, -365, -60, -1360, -235, -26, -556, 88, 570,
        -62, -221, 300, 138, -190, 570, 308, 166, 29, 100, 186, -470, 27, -143, -406, -504,
        -117, 143, 121, 113, -72, 9, -5, -257, -415, -159, 0, 0, 0, 0, 0, 0,
        0, 0, 0, 0, 0, 0, 0, 0, 0, 0, 0, 0, -21, -59, -43, -75,
        -64, -79, -210, -18, 1, 0, 0, 0, 0, 0, 0, 0, 0, 0, 133, 267,
        -263, 729, 306, 444, -132, 668, 266, 402, -58, 220, 242, 864, -488, 262, 490, 115,
        0, 0, 0, 0, 0, 0, 0, 0, 0, -236, -491, -1169, -664, 167, -129, -507,
        66, -193, 275, -373, 438, -79, -375, -24, -248, -295, 725, 0, 0, 0, 0, 0,
        0, 0, 0, 0, 0, 0, 0, 0, 0, 0, 0, 0, 0, -4, -5, -5,
        -5, -7, -6, -5, -7, -6, -865, -572, -676, -640, -605, -406, -555, -159, -124, -723,
        581, 160, 152, 155, -239, -616, -552, -146, -196, -257, -367, -147, -23, 1, -367, -106,
        -76, -435, -235, -810, 40, -118, -50, -762, -395, -118, 166, -56, 286, 115, 615, 486,
        231, -508, -464, -365, 208, 65, 638, -257, 95, 573, -243, -515, 118, 144, 125, 16,
        16, 31, -25, 12, 19, 40, 39, 46, 12, 12, 22, 4, 2, 12, 132, 51,
        163, 181, 507, -24, 5, -194, -318, 329, 80, 178, 530, -460, -671, 424, -955, -682,
        57, -30, -15, 38, 86, 231, -31, 7, 170, 301, 62, 209, 516, 138, 288, 361,
        311, 207, 21, 66, -83, 334, -145, 212, 278, -168, -218, -279, 342, 162, -56, 171,
        217, 314, -37, 22, 0, 0, 0, 0, 0, 0, 0, 0, 0, 0, 0, 0,
        0, 0, 0, 0, 0, 0, -1313, 70, 123, -1311, 245, 359, -1940, 272, 544, -946,
        396, 136, -775, -901, -146, -541, 14, -384, 420, -121, 478, 75, -381, 141, 271, -182,
        -78, 19, 131, 72, 86, 392, 226, 27, 474, 398, 0, 0, 0, 0, 0, 0,
        0, 0, 0, 0, 0, 0, 0, 0, 0, 0, 0, 0, 25, 172, 131, 230,
        151, 37, 981, 613, 368, 0, 0, 0, 0, 0, 0, 0, 0, 0, 906, -90,
        -132, 975, -256, -155, 1611, -155, -355, 978, -133, 321, 1041, 155, 41, 814, -125, -537,
        0, 0, 0, 0, 0, 0, 0, 0, 0, 210, 161, 173, 123, 150, 103, 187,
        -92, -11, -1455, 147, -65, -1207, -363, 309, -1621, -294, 439, 0, 0, 0, 0, 0,
        0, 0, 0, 0, 0, 0, 0, 0, 0, 0, 0, 0, 0, 2, 3, 4,
        2, 4, 5, 2, 3, 4, 956, 679, 335, 351, 471, 73, 374, 299, 18, 1666,
        -508, 327, 1061, -571, 627, 1476, -819, 7, 117, -235, 157, 114, -331, -91, 126, -506,
        -126, 1058, -358, -247, 643, -258, -401, 1079, -177, -458, 270, -4, -315, 218, 467, 206,
        271, 449, 227, 383, -606, -28, 35, 307, 270, 453, -95, 227, -48, -82, -112, 48,
        33, 26, 177, 52, 19, -32, -23, -23, -16, -5, -5, -25, -15, -15, -279, 292,
        58, -80, -91, 123, -256, -70, -145, -1027, 108, -58, -674, 88, 250, -958, 265, 459,
        129, 256, 231, 348, 32, -183, 200, 167, -480, -46, 188, -72, 42, 144, 246, 64,
        -186, -63, 509, 588, 242, 559, 69, 18, -15, -601, -605, -133, 230, 33, -461, -239,
        -195, -370, -194, 40, 0, 0, 0, 0, 0, 0, 0, 0, 0, 0, 0, 0,
        0, 0, 0, 0, 0, 0, -68, -65, -147, -439, 173, -300, -184, 179, 150, 4,
        781, 126, -355, 104, 354, 240, 297, 212, 470, -1, 221, 273, -639, -45, -359, -654,
        8, 70, 26, -295, 82, -114, -301, -32, -155, -340, 0, 0, 0, 0, 0, 0,
        0, 0, 0, 0, 0, 0, 0, 0, 0, 0, 0, 0, 71, 40, 64, -89,
        -22, -22, -18, 55, 198, 0, 0, 0, 0, 0, 0, 0, 0, 0, 513, 17,
        102, 134, 237, -41, 18, 16, -279, 177, -223, 242, 236, -364, 353, 151, -519, -245,
        0, 0, 0, 0, 0, 0, 0, 0, 0, 276, -360, -158, -40, -118, 91, -23,
        -94, 357, 37, 290, 87, 284, 227, -79, -39, 179, -152, 0, 0, 0, 0, 0,
        0, 0, 0, 0, 0, 0, 0, 0, 0, 0, 0, 0, 0, 0, 0, 0,
        0, 0, 0, 0, 0, 0, 125, -289, -202, -78, -293, -276, -124, -166, -84, 798,
        -151, 100, -47, -683, -38, -219, -324, 391, 272, 32, -80, 142, 34, 79, 49, -117,
        -90, 25, 303, 104, -121, 75, 5, -366, 27, 250, 83, 69, -141, -9, 112, -481,
        -111, 320, -282, 169, 93, -76, 130, 86, 207, -12, -632, -135, -108, -125, -105, 57,
        82, 82, -58, -45, -12, 3, 4, 9, 0, 0, 5, -1, 0, 7, 314, 67,
        256, 514, -60, 138, 155, -169, 491, 28, 319, 255, -384, 255, -185, -241, 255, 32,
        -287, 52, -241, 54, -458, -282, 533, 497, 165, -175, 194, 291, -81, 42, -132, -100,
        -89, -166, 78, -494, -457, 166, -185, -86, 677, 540, 512, -546, -1014, -766, 83, -157,
        -261, 64, 698, 411, 0, 0, 0, 0, 0, 0, 0, 0, 0, 0, 0, 0,
        0, 0, 0, 0, 0, 0, -815, -621, -452, -195, 414, -384, 806, 620, -82, 107,
        736, 807, -163, 207, 17, -937, -406, -61, -9, -243, -85, 128, -289, -34, 395, 367,
        -14, -213, -148, 533, -273, -761, -107, 114, -238, -198, 0, 0, 0, 0, 0, 0,
        0, 0, 0, 0, 0, 0, 0, 0, 0, 0, 0, 0, -161, -155, -194, -292,
        -213, -316, -1200, -805, -740, 0, 0, 0, 0, 0, 0, 0, 0, 0, 18, 61,
        -348, 417, -10, -442, -365, 571, -576, -97, -553, -699, 336, 48, -19, -9, 294, 441,
        0, 0, 0, 0, 0, 0, 0, 0, 0, -402, -426, 278, -57, 197, 157, -424,
        -186, -32, -552, -182, -306, -151, 112, -336, -36, 7, -421, 0, 0, 0, 0, 0,
        0, 0, 0, 0, 0, 0, 0, 0, 0, 0, 0, 0, 0, 0, 0, 0,
        0, 0, 0, 0, 0, 0, 645, 255, 831, 109, 358, 230, -30, 175, 124, -124,
        -810, 183, -98, -152, 371, -153, 263, 389, 20, -189, 12, -16, -145, 74, -119, -147,
        -152, 389, 504, 1548, -283, -401, 288, -781, -518, -296, -712, -713, -436, 129, -42, -13,
        473, 627, 42, -669, -340, -462, 198, -68, -404, 993, 834, 302, -297, -338, -280, 70,
        92, 52, -294, -222, -236, -41, -41, -38, -23, -28, -34, 28, 30, 23, 109, -245,
        189, -59, -150, 201, 346, 128, 520, -797, -303, -298, -370, -222, -676, 737, 1060, 507,
        17, -112, -761, 527, 437, 173, 609, 306, 60, -51, -48, 32, -434, -524, -250, -118,
        14, -10, 371, 562, 266, 1026, 131, 271, 1074, 1033, 1002, -264, 408, -292, 344, 702,
        -589, -91, -56, -716, 0, 0, 0, 0, 0, 0, 0, 0, 0, 0, 0, 0,
        0, 0, 0, 0, 0, 0, -600, 208, -257, -164, 6, -1485, -513, -834, -511, -1187,
        597, 362, -509, 1471, 514, -1162, 426, 216, 559, -183, 507, 794, -136, 73, -49, -394,
        -73, -69, -128, 653, 140, -249, 515, 458, -43, 42, 0, 0, 0, 0, 0, 0,
        0, 0, 0, 0, 0, 0, 0, 0, 0, 0, 0, 0, 182, 127, 75, -106,
        -12, -39, -550, -388, -291, 0, 0, 0, 0, 0, 0, 0, 0, 0, 688, 496,
        -27, 249, 158, -14, -354, -421, -451, -64, -378, 19, 719, -90, 61, 591, 591, -86,
        0, 0, 0, 0, 0, 0, 0, 0, 0, 186, 172, 626, 172, -542, -100, 606,
        -26, 115, -631, 93, -171, 248, 495, -322, 414, 766, 700, 0, 0, 0, 0, 0,
        0, 0, 0, 0, 0, 0, 0, 0, 0, 0, 0, 0, 0, 0, 0, 0,
        0, 0, 0, 0, 0, 0, 6, 446, 1082, 339, 285, 211, -317, -633, 81, 267,
        -254, -153, 766, -331, 395, 661, 190, 65, 163, -301, -49, 635, 377, 751, 751, 619,
        770, -608, 373, 148, -347, 378, 112, -1243, -813, -577, 205, 415, 72, 318, 349, 149,
        164, -110, -184, 153, -337, -213, 882, 272, -66, 696, -396, -287, -23, -37, 41, -67,
        -10, -26, -186, -77, -70, 7, 3, -2, 14, 5, -2, 34, 29, 15, -199, -490,
        634, 165, 1, 267, 41, 1, -123, -163, 28, -648, -146, 774, -837, 37, -173, -1043,
        -180, 273, 148, -427, 13, 482, -357, 76, 306, -23, 73, 202, -40, 26, 363, 107,
        -299, -120, 233, -5, 986, 291, -103, 706, 128, -247, 500, 163, 249, -147, 359, 312,
        -411, 459, 90, 38, 0, 0, 0, 0, 0, 0, 0, 0, 0, 0, 0, 0,
        0, 0, 0, 0, 0, 0, 176, -123, -418, 139, -83, -227, 429, -99, 85, 71,
        999, 596, -519, -29, -103, -357, -477, -542, -25, -147, -232, 557, 45, -54, 573, 112,
        -190, 91, 423, -858, 257, 236, -662, 296, 357, -620, 0, 0, 0, 0, 0, 0,
        0, 0, 0, 0, 0, 0, 0, 0, 0, 0, 0, 0, -139, -140, -135, 19,
        -18, -134, 317, 159, 110, 0, 0, 0, 0, 0, 0, 0, 0, 0, -63, -340,
        -528, 504, -227, -521, 1126, 974, 759, 431, 462, 90, -29, 813, 383, -476, 44, -305,
        0, 0, 0, 0, 0, 0, 0, 0, 0, -65, -194, -289, 18, 108, -262, -1041,
        -198, -186, -18, 927, 49, -176, 26, 591, -730, -353, 355, 0, 0, 0, 0, 0,
        0, 0, 0, 0, 0, 0, 0, 0, 0, 0, 0, 0, 0, 0, 0, 0,
        0, 0, 0, 0, 0, 0, 585, 336, -78, -30, 223, -63, 96, 434, 120, 532,
        561, 1000, 285, -387, 356, -211, -664, -235, 79, 327, 1049, -266, 66, 455, -1139, -522,
        -160, 495, 822, 182, 80, 89, -313, -187, -683, -882, 209, 291, -331, -82, 246, -210,
        -46, 165, 64, 134, 192, 102, -219, 202, -318, 291, 587, -66, 51, 40, 33, 37,
        30, 34, -13, -31, -73, -14, -12, -3, -3, -5, 6, -3, -3, 7, -803, 535,
        -491, -978, 374, 475, -1073, -98, -395, -423, -301, -119, -423, -538, -142, 428, -320, 324,
        0, 0, 0, 0, 0, 0, 0, 0, 0, 0, 0, 0, 0, 0, 0, 0,
        0, 0, 0, 0, 0, 0, 0, 0, 0, 0, 0, 0, 0, 0, 0, 0,
        0, 0, 0, 0, 0, 0, 0, 0, 0, 0, 0, 0, 0, 0, 0, 0,
        0, 0, 0, 0, 0, 0, 0, 0, 0, 0, 0, 0, 0, 0, 0, 0,
        0, 0, 0, 0, 0, 0, 0, 0, 0, 0, 0, 0, 0, 0, 0, 0,
        0, 0, 0, 0, 0, 0, 0, 0, 0, 0, 0, 0, 0, 0, 0, 0,
        0, 0, 0, 0, 0, 0, 0, 0, 0, 0, 0, 0, 0, 0, 0, 0,
        0, 0, 0, 0, 0, 0, 0, 0, 0, 0, 0, 0, 0, 0, 0, 0,
        0, 0, 0, 0, 0, 0, 0, 0, 0, 0, 0, 0, 0, 0, 0, 0,
        0, 0, 0, 0, 0, 0, 0, 0, 0, 0, 0, 0, 0, 0, 0, 0,
        0, 0, 0, 0, 0, 0, 0, 0, 0, 0, 0, 0, 0, 0, 0, 0,
        0, 0, 0, 0, 0, 0, 0, 0, 0, 0, 0, 0, 0, 0, 0, 0,
        0, 0, 0, 0, 0, 0, 0, 0, 0, 0, 0, 0, 0, 0, 0, 0,
        0, 0, 0, 0, 0, 0, 0, 0, 0, 0, 0, 0, 0, 0, 0, 0,
        0, 0, 0, 0, 0, 0, 0, 0, 0, 0, 0, 0, 0, 0, 0, 0,
        0, 0, 0, 0, 0, 0, 0, 0, 0, 0, 0, 0, 0, 0, 0, 0,
        0, 0, 0, 0, 0, 0, 0, 0, 0, 0, 0, 0, 0, 0, 0, 0,
        0, 0, 0, 0, 0, 0, 0, 0, 0, 0, 0, 0, 0, 0, 0, 0,
        310, 679, 197, -68, 93, -404, -109, -327, -324, 25, -107, 231, 197, -267, -33, 360,
        -219, 370, 282, -24, 1217, 303, -187, 606, -118, -360, -10, -569, -773, -657, 214, -248,
        7, 504, 267, 302, 0, 0, 0, 0, 0, 0, 0, 0, 0, 0, 0, 0,
        0, 0, 0, 0, 0, 0, -391, 27, 83, -423, 3, -143, -70, 173, 33, 251,
        -357, 59, 429, -376, -346, 704, -432, -211, -602, -514, -467, -348, 114, 279, -731, -209,
        64, 176, -189, 336, -39, -277, 403, -24, -207, 423, 0, 0, 0, 0, 0, 0,
        0, 0, 0, 0, 0, 0, 0, 0, 0, 0, 0, 0, -136, -46, -65, 89,
        128, 126, 225, 265, 243, 0, 0, 0, 0, 0, 0, 0, 0, 0, -533, -342,
        149, -371, 161, 7, 158, 499, 697, 65, -306, -150, -48, -442, -309, 196, 280, -40,
        0, 0, 0, 0, 0, 0, 0, 0, 0, -767, -393, -269, -116, 72, -237, -666,
        -99, -256, 739, 680, 698, 251, 302, 460, 230, -1041, -137, 0, 0, 0, 0, 0,
        0, 0, 0, 0, 0, 0, 0, 0, 0, 0, 0, 0, 0, 0, 0, 0,
        0, 0, 0, 0, 0, 0, 209, -178, -376, -76, -86, -47, 112, 409, 3, 97,
        498, 1383, -375, 109, 319, 231, -405, 369, 929, 771, 1094, 513, 255, 209, -155, -178,
        -214, -403, -145, -421, 577, 913, 452, 326, 510, 16, -523, -194, -164, 186, 326, 230,
        96, 127, -135, -192, 14, 112, -48, 260, 361, -28, 460, 267, 88, 96, 146, 30,
        -9, 30, 85, 43, 57, 13, 13, 17, -2, -2, 2, 1, 1, 5, 350, 654,
        635, -191, 439, 845, -106, 175, 674, -671, -272, -584, -197, -40, -129, -24, 150, -349,
        0, 0, 0, 0, 0, 0, 0, 0, 0, 0, 0, 0, 0, 0, 0, 0,
        0, 0, 0, 0, 0, 0, 0, 0, 0, 0, 0, 0, 0, 0, 0, 0,
        0, 0, 0, 0, 0, 0, 0, 0, 0, 0, 0, 0, 0, 0, 0, 0,
        0, 0, 0, 0, 0, 0, 0, 0, 0, 0, 0, 0, 0, 0, 0, 0,
        0, 0, 0, 0, 0, 0, 0, 0, 0, 0, 0, 0, -1, -1, -2, -2,
        -2, 0, 0, 0, 0, 0, 0, 0, 0, 0, 0, 0, 0, 0, 0, 0,
        0, 0, 0, 0, 0, 0, 0, 0, 0, 0, 0, 0, 0, 0, 0, 0,
        0, 0, 0, 0, 0, 0, 0, 0, 0, 0, 0, 0, 0, 0, 0, 0,
        -1, -3, -3, -4, -8, -8, -8, 0, 0, 0, 0, 0, -1, -1, -1, -1,
        0, 0, 0, 0, 0, 0, 0, 0, 0, 0, 0, 0, 0, 0, 0, 0,
        0, 0, 0, 0, 0, 0, 0, 0, 0, 0, 0, 0, 0, 0, 0, 0,
        0, 0, 0, 0, 0, 0, 0, 0, 0, 0, 0, 0, 0, 0, 0, 0,
        0, 0, 0, 0, 0, 0, 0, 0, 0, 0, 0, 0, 0, 0, 0, -1,
        -2, -2, -4, -5, -5, -6, -7, -8, 0, 0, 0, 0, 0, 0, 0, 0,
        0, 0, 0, 0, 0, 0, 0, 0, 0, 0, 0, 0, 0, 0, 0, 0,
        0, 0, 0, 0, 0, 0, 0, 0, 0, 0, 0, 0, 0, 0, 0, 0,
        0, 0, 0, 0, 0, 0, 0, 0, 0, 0, 0, 0, 0, 0, 0, 0,
        0, 0, 0, 0, 0, 0, 0, 0, 0, 0, 0, 0, 0, 0, 0, 0,
        13, 69, 231, 281, 67, 240, 95, 72, 61, 81, 50, -230, 173, 23, 12, 183,
        188, -23, -52, 269, -24, 87, -84, -106, 167, 121, -162, -543, 246, 353, -546, -135,
        285, -47, -249, 35, 0, 0, 0, 0, 0, 0, 0, 0, 0, 0, 0, 0,
        0, 0, 0, 0, 0, 0, -210, 262, 39, -277, 423, -96, -320, 7, 288, -414,
        114, -537, 121, -4, -90, 453, 591, -268, -114, 87, 114, -79, -194, 162, -93, -113,
        -175, 68, -49, -699, 9, -8, -485, -98, -117, -603, 0, 0, 0, 0, 0, 0,
        0, 0, 0, 0, 0, 0, 0, 0, 0, 0, 0, 0, -17, 4, 24, -41,
        -11, 0, -2, -118, -210, 0, 0, 0, 0, 0, 0, 0, 0, 0, -608, 123,
        -36, -119, -134, -59, -745, -215, -667, 186, 89, 758, 192, -793, 581, 147, -339, 432,
        0, 0, 0, 0, 0, 0, 0, 0, 0, -70, -105, 52, 81, -61, 157, 398,
        15, 41, -10, 122, -357, 355, -96, -716, 84, -232, -677, 0, 0, 0, 0, 0,
        0, 0, 0, 0, 0, 0, 0, 0, 0, 0, 0, 0, 0, 0, 0, 0,
        0, 0, 0, 0, 0, 0, -388, -534, -544, -193, -421, -346, 114, -176, -153, 74,
        -189, -249, 429, 283, -249, 153, 111, 120, 280, -78, -216, 240, -133, -208, 400, -107,
        -224, -294, -246, -607, 159, 186, -205, 470, 210, 120, 93, 111, -78, -5, 320, 8,
        -99, -55, 241, -168, 189, 213, -212, 6, 235, 26, -292, 240, 47, 55, 61, -29,
        -11, 0, 28, 6, -1, 12, 15, 20, 0, 3, 12, -3, -1, 6, 706, 61,
        120, 515, -253, 89, 663, -262, 573, -177, 288, 247, -149, 551, 452, -490, 344, 337,
        403, 56, 216, 298, -83, 446, 462, 657, 889, 398, 191, -9, 162, -131, -35, -325,
        -441, -200, -301, -134, 673, 664, 47, 33, 950, 129, 890, -817, -901, -369, -411, -185,
        147, -228, 425, 498, 0, 0, 0, 0, 0, 0, 0, 0, 0, 0, 0, 0,
        0, 0, 0, 0, 0, 0, -501, -462, -324, -307, 100, 479, 1059, 828, 748, 448,
        273, 241, 392, 204, 38, -306, -808, 34, -428, 707, -340, -248, -162, -484, -86, -41,
        21, -109, -107, -509, -458, -723, -1037, -212, -489, -1063, 0, 0, 0, 0, 0, 0,
        0, 0, 0, 0, 0, 0, 0, 0, 0, 0, 0, 0, -304, -294, -254, -175,
        -123, -125, -1555, -1139, -1363, 0, 0, 0, 0, 0, 0, 0, 0, 0, -69, -229,
        -432, 136, 9, 339, 357, -21, -345, -573, -348, 358, 542, 800, 17, 288, 125, -388,
        0, 0, 0, 0, 0, 0, 0, 0, 0, -78, -8, 263, -76, -70, 336, -246,
        -379, -663, -324, -266, -283, -210, 524, -33, 490, 67, -184, 0, 0, 0, 0, 0,
        0, 0, 0, 0, 0, 0, 0, 0, 0, 0, 0, 0, 0, -6, -7, -5,
        -6, -7, -5, -3, -4, -3, -340, -259, 96, -329, -291, -203, -260, 7, -518, -518,
        191, -159, -52, -272, 663, -557, -177, -227, -161, -66, -72, -315, 12, -60, -476, -348,
        -497, -33, -225, 204, -567, -275, 470, -1458, -416, -625, -175, -424, -142, 84, 185, 301,
        349, 482, 733, -795, -608, 237, 687, 609, 812, 785, 338, 273, -93, -84, -96, 25,
        14, 12, -328, -231, -312, 0, 3, 28, -10, -9, 10, 32, 36, 49, -517, 410,
        218, -62, 356, -14, -42, 748, 490, -65, -224, -359, 62, 3, -24, 540, 628, 1193,
        309, 309, 453, 267, 323, 292, 123, 155, 237, -242, -506, -273, -320, -435, -391, -1,
        16, -173, 534, 681, 626, 775, 166, -313, 109, -198, 364, -7, 318, 178, 134, 130,
        -140, -130, -241, -50, 0, 0, 0, 0, 0, 0, 0, 0, 0, 0, 0, 0,
        0, 0, 0, 0, 0, 0, -143, 107, -136, -230, -40, -216, -130, -80, -8, -918,
        -971, -1089, -231, 34, -266, 64, -198, 1, 710, 81, -317, 338, -405, -67, 116, -56,
        -132, 128, 10, -275, 80, 66, -141, -8, -90, -202, 0, 0, 0, 0, 0, 0,
        0, 0, 0, 0, 0, 0, 0, 0, 0, 0, 0, 0, -34, -43, -37, -63,
        -60, -71, -136, -112, -115, 0, 0, 0, 0, 0, 0, 0, 0, 0, 49, -18,
        -27, -421, -115, -547, -677, 26, -464, 465, 417, 344, 175, -320, 166, 3, -286, -202,
        0, 0, 0, 0, 0, 0, 0, 0, 0, -23, -163, -351, -11, -490, -5, 54,
        7, 11, -53, -121, 74, -90, -119, 20, -113, -183, 120, 0, 0, 0, 0, 0,
        0, 0, 0, 0, 0, 0, 0, 0, 0, 0, 0, 0, 0, 0, 0, 0,
        0, 0, 0, 0, 0, 0, -923, -716, -1024, -471, -491, -451, -260, -229, -91, -253,
        -368, 33, 98, 24, 2, -241, -444, 126, -201, -268, -114, -155, -215, 1, -185, -156,
        -9, -1114, -650, -1135, -286, -29, -368, -372, -21, -125, 75, 343, -30, 166, 422, 98,
        196, 289, 146, 205, 307, -159, 462, 127, 45, 294, -201, 0, 164, 191, 182, -58,
        -58, -28, -5, 22, 27, 27, 24, 29, 9, 8, 17, 5, 4, 13, 364, -78,
        52, 94, -316, -242, 0, -437, -201, -100, 116, 15, -115, 424, -12, -29, -354, -374,
        -49, -62, -38, -90, -45, -12, -169, -89, -90, 114, 80, 7, 139, 90, 51, -255,
        -416, -339, -282, 112, -234, 527, 1047, 301, -88, 245, -243, -92, -222, -22, -92, -178,
        -67, -123, -305, -101, 0, 0, 0, 0, 0, 0, 0, 0, 0, 0, 0, 0,
        0, 0, 0, 0, 0, 0, -202, -192, -201, -149, -135, -240, -164, -190, -226, 252,
        -136, -398, 463, 164, 58, 239, 56, 51, -704, -442, -608, -454, -117, -299, -628, -163,
        -385, -15, 0, 71, -25, -16, 42, -14, -60, 48, 0, 0, 0, 0, 0, 0,
        0, 0, 0, 0, 0, 0, 0, 0, 0, 0, 0, 0, -34, -33, -38, -50,
        -33, -48, -35, -26, -26, 0, 0, 0, 0, 0, 0, 0, 0, 0, -1123, -1011,
        -952, -890, -677, -688, -1357, -1077, -961, -435, 16, -369, -143, 440, -183, -241, 195, -212,
        0, 0, 0, 0, 0, 0, 0, 0, 0, -798, -769, -907, -134, -154, -361, -391,
        -386, -562, 203, 736, 184, 472, 978, 505, 113, 646, 119, 0, 0, 0, 0, 0,
        0, 0, 0, 0, 0, 0, 0, 0, 0, 0, 0, 0, 0, 0, 0, 0,
        0, 0, 0, 0, 0, 0, 102, 250, 309, -56, 151, 209, 105, 319, 308, -371,
        -246, -1132, 140, 280, -601, -439, -348, -1118, -15, -16, -59, -1, -6, -40, -64, -47,
        -76, -420, -267, -189, -384, -223, -150, -431, -265, -190, -534, -330, -438, -210, 8, -194,
        -309, -115, -216, -706, -529, -782, -239, -51, -461, -517, -366, -699, -2, -2, 0, -5,
        -4, -3, -4, -4, -5, -1, 0, -1, -4, -2, -4, -1, -1, -2, -98, 106,
        -612, 389, 546, -13, -61, 204, -243, -195, -291, -236, -208, -315, -328, -252, -338, -310,
        791, 711, 419, 771, -7, -78, 131, -113, -239, -93, 106, 288, 361, 298, -383, 96,
        467, -68, 244, -210, -326, 144, -121, 396, -427, 14, -44, -322, -56, 492, -362, -237,
        31, -664, -309, -89, 0, 0, 0, 0, 0, 0, 0, 0, 0, 0, 0, 0,
        0, 0, 0, 0, 0, 0, -1019, -274, -452, -589, 222, -28, -257, -127, 149, 490,
        -1, 343, 618, 290, 120, 297, 1, -196, 21, 292, 289, 223, -173, -736, -798, -477,
        -258, 248, -257, 14, -151, -218, -32, -346, -432, -284, 0, 0, 0, 0, 0, 0,
        0, 0, 0, 0, 0, 0, 0, 0, 0, 0, 0, 0, -165, -80, -93, -127,
        -36, 3, -387, -180, -149, 0, 0, 0, 0, 0, 0, 0, 0, 0, -156, -85,
        -306, -126, 287, -201, -706, 11, 146, 949, 821, 527, 580, -20, -384, 76, 406, -246,
        0, 0, 0, 0, 0, 0, 0, 0, 0, -683, -516, 329, -88, -657, 251, -9,
        -478, -80, 269, 395, 81, 446, 521, 178, 48, -472, -345, 0, 0, 0, 0, 0,
        0, 0, 0, 0, 0, 0, 0, 0, 0, 0, 0, 0, 0, -5, -4, -3,
        -6, -6, -5, -6, -6, -5, -700, -791, -1059, -998, -1014, -678, -502, -619, -536, -130,
        108, -598, 157, -155, -124, 1, -346, -418, 64, -29, -366, 271, 41, -320, 250, -205,
        -446, -582, -198, -187, -195, 165, 146, -699, -448, 28, -111, 478, 341, -128, -263, 519,
        15, 99, 529, 260, -254, 53, -136, -451, 426, 384, -8, 507, 199, 273, 280, -48,
        -32, -39, -31, 13, 9, 42, 44, 51, 14, 18, 28, 10, 12, 22, 968, 916,
        398, 520, -227, 374, -63, 319, 265, -198, 638, 316, -441, 619, 159, 273, 139, -183,
        249, 93, 74, 319, 215, 243, 211, 246, -2, 152, 131, 8, -123, -110, -216, 210,
        76, 208, -1026, -550, -1231, -318, 1111, -273, -748, 73, -594, 33, 223, 254, 163, 737,
        389, -351, -162, -171, 0, 0, 0, 0, 0, 0, 0, 0, 0, 0, 0, 0,
        0, 0, 0, 0, 0, 0, 14, 50, -469, 419, 620, -198, 310, 292, -272, -543,
        -233, -578, -662, -229, -697, -655, -331, -658, -402, -272, -1090, -289, 46, -791, -511, -193,
        -1000, -53, 115, -181, -83, 41, -313, -74, -205, -330, 0, 0, 0, 0, 0, 0,
        0, 0, 0, 0, 0, 0, 0, 0, 0, 0, 0, 0, -98, -29, -78, -125,
        -37, -115, -342, -234, -206, 0, 0, 0, 0, 0, 0, 0, 0, 0, -546, -475,
        -906, -52, 111, -271, -514, -160, -387, -884, -22, -674, -143, 684, 302, -767, -363, -544,
        0, 0, 0, 0, 0, 0, 0, 0, 0, -531, -647, -686, -243, -220, -473, -333,
        -219, -394, -309, 246, -516, 156, 606, -232, -189, 92, -831, 0, 0, 0, 0, 0,
        0, 0, 0, 0, 0, 0, 0, 0, 0, 0, 0, 0, 0, 0, 0, 0,
        0, 0, 0, 0, 0, 0, -536, -491, -389, -283, -194, -178, -419, -387, -363, -1407,
        -585, -1311, -311, 651, -392, -1205, -399, -1320, -428, -254, -455, -344, -142, -282, -499, -320,
        -434, -667, -708, -652, -752, -838, -802, -819, -928, -921, -799, -199, -943, 79, 1156, 66,
        -477, 163, -800, -687, -374, -1217, 110, 517, -488, -131, 200, -697, -11, -8, -1, -14,
        -15, -9, -29, -27, -27, -13, -5, -5, -19, -8, -12, -15, -8, -9, -799, -230,
        -661, -108, 564, -156, -673, -440, -689, 256, 467, 343, 425, 784, 550, 128, 343, 77,
        301, 702, 327, -78, 994, 639, 54, 533, 674, -67, -37, -434, 576, -146, 228, -135,
        68, -383, 29, -122, -138, 402, 627, 229, 26, 828, 965, -44, 44, 507, -95, -274,
        132, -391, -167, -103, 0, 0, 0, 0, 0, 0, 0, 0, 0, 0, 0, 0,
        0, 0, 0, 0, 0, 0, 113, -212, -278, -535, -120, -122, 185, 178, 452, 686,
        -349, 89, 726, -821, 0, 626, 153, 38, 537, 514, -12, -391, 223, -592, -540, -44,
        -147, 11, -51, -435, -308, -216, -591, -356, -509, -920, 0, 0, 0, 0, 0, 0,
        0, 0, 0, 0, 0, 0, 0, 0, 0, 0, 0, 0, -144, -78, -80, -34,
        -82, -222, -193, -232, -596, 0, 0, 0, 0, 0, 0, 0, 0, 0, -447, -109,
        -489, 425, 428, -568, 381, 253, -181, -770, 51, -250, 160, 825, 612, -183, 469, 522,
        0, 0, 0, 0, 0, 0, 0, 0, 0, 336, -372, -346, 281, -246, 95, -589,
        109, -29, -163, 88, 361, -254, 619, 425, -158, 665, 776, 0, 0, 0, 0, 0,
        0, 0, 0, 0, 0, 0, 0, 0, 0, 0, 0, 0, 0, -6, -6, -4,
        -7, -8, -5, -6, -7, -5, -572, -45, -536, -509, -216, -627, -106, 29, -354, -957,
        -605, 328, 59, 626, 54, -697, -987, -176, -529, -370, -69, -170, 55, 188, -437, -82,
        -7, 283, -282, 70, -554, -35, 209, -838, -135, -154, -68, -24, 866, -173, 841, 515,
        -161, 308, 312, -16, 457, 85, -283, 437, -51, 64, 155, -615, 86, 8, 35, 51,
        20, 28, -20, -78, -124, 21, 29, 53, 0, 8, 34, 7, 11, 31, -848, -268,
        -576, -904, 172, 329, -176, -368, 258, 92, 461, 119, -263, -440, 110, -148, -337, 230,
        479, 259, 168, 613, 209, 6, 251, -418, -24, 146, 254, 301, 154, 429, 91, 396,
        169, 161, 655, 300, -613, 444, 508, 78, 134, -15, -561, -18, 458, 334, -325, 112,
        1, -758, -436, -335, 0, 0, 0, 0, 0, 0, 0, 0, 0, 0, 0, 0,
        0, 0, 0, 0, 0, 0, 256, 338, -45, 134, -91, 30, 163, -136, 67, -1151,
        -473, -687, -956, -227, -481, -385, 49, 114, 1011, 59, 192, 500, 115, 309, 202, -272,
        -371, 163, 172, 28, 88, 169, 154, -45, -51, 99, 0, 0, 0, 0, 0, 0,
        0, 0, 0, 0, 0, 0, 0, 0, 0, 0, 0, 0, -36, -95, 0, 112,
        87, 161, 49, 147, 295, 0, 0, 0, 0, 0, 0, 0, 0, 0, 402, 533,
        -51, 1048, 419, 264, 807, 189, 484, 170, -206, 238, 311, 61, 550, 462, -652, 89,
        0, 0, 0, 0, 0, 0, 0, 0, 0, 441, 457, 862, 596, 236, 476, 5,
        -116, -134, 774, 355, 34, 668, 628, -90, 215, 118, -253, 0, 0, 0, 0, 0,
        0, 0, 0, 0, 0, 0, 0, 0, 0, 0, 0, 0, 0, -2, -2, -2,
        -3, -3, -2, -3, -3, -2, -1538, -1377, -1239, -1277, -1548, -1006, -1081, -1132, -852, -700,
        -125, -496, -339, -347, -533, -221, 220, -967, -558, -286, -567, -320, -98, -320, -557, -220,
        -642, -1165, -314, -668, -195, 145, 61, -390, -193, -30, 130, -333, 54, 570, 86, -167,
        -471, -438, -428, 201, 389, 18, 539, 422, 177, -157, 99, 535, 135, 173, 152, -30,
        -16, -1, 19, 59, 59, 33, 33, 36, 13, 13, 20, 0, 0, 7, 172, 147,
        475, 412, 465, 517, 412, -27, 228, 190, 144, 268, -20, 402, 314, 85, 30, -50,
        109, 493, 671, 80, 502, 507, 305, 258, 291, 200, 28, -181, 187, 226, 183, 280,
        -60, -23, -24, -150, -120, 605, 120, 953, 294, 209, 618, 689, 149, -40, 254, -91,
        -174, -4, -451, -290, 0, 0, 0, 0, 0, 0, 0, 0, 0, 0, 0, 0,
        0, 0, 0, 0, 0, 0, -78, -442, -499, -24, -278, -253, 90, -21, -322, 282,
        -49, -254, -348, 53, -41, 65, -443, -190, 628, -386, -129, 1071, -36, -111, 671, 234,
        -645, 50, 94, -396, 18, -99, -450, -93, -296, -530, 0, 0, 0, 0, 0, 0,
        0, 0, 0, 0, 0, 0, 0, 0, 0, 0, 0, 0, 31, -39, -30, -83,
        -63, -121, -172, -136, -78, 0, 0, 0, 0, 0, 0, 0, 0, 0, -188, -399,
        -225, -151, 200, -1045, 574, 23, -935, 9, -176, -125, 44, 559, 609, -224, 225, -165,
        0, 0, 0, 0, 0, 0, 0, 0, 0, -526, -865, -662, -337, -501, -185, -69,
        -223, 58, -101, -439, -167, -377, -83, 109, -440, -145, -166, 0, 0, 0, 0, 0,
        0, 0, 0, 0, 0, 0, 0, 0, 0, 0, 0, 0, 0, 0, 0, 0,
        0, 0, 0, 0, 0, 0, -418, -74, -259, -20, 103, 86, -184, 44, 139, 163,
        -59, 179, -302, -770, -8, 179, -209, 919, -64, -79, 92, -188, -169, 174, -368, -157,
        236, 26, 192, 247, -358, -489, -189, -459, -303, -95, 335, 230, 271, 340, 267, -266,
        241, -143, -50, 486, -200, -525, 351, 58, -243, 83, 285, 85, -6, 0, -2, 34,
        29, 23, -55, -29, -25, 14, 11, 17, 0, -2, 4, -1, -6, 2, -796, -520,
        -749, -587, 68, -268, -777, -358, -972, 153, 78, 175, -189, -215, -147, 147, -252, -280,
        -275, -254, -214, -274, -118, -202, -97, 113, 169, 196, 196, 23, 259, 257, 210, 208,
        171, 179, 45, 3, -430, -3, -48, -426, -137, -205, -564, -41, 60, -17, 68, 58,
        -3, 179, 7, -86, 0, 0, 0, 0, 0, 0, 0, 0, 0, 0, 0, 0,
        0, 0, 0, 0, 0, 0, -280, -52, 22, -130, 153, 249, -290, 39, 173, -273,
        -29, -370, -112, 111, -274, -97, -9, -288, 6, -37, 182, -87, -79, 134, 14, 84,
        370, 1, 91, 35, 4, 80, 41, 7, 75, 31, 0, 0, 0, 0, 0, 0,
        0, 0, 0, 0, 0, 0, 0, 0, 0, 0, 0, 0, -23, -21, -19, 130,
        138, 138, 10, 19, 12, 0, 0, 0, 0, 0, 0, 0, 0, 0, 439, 232,
        109, 415, 210, 119, 639, 422, 393, -419, -227, -457, -320, -206, -285, -196, -171, -185,
        0, 0, 0, 0, 0, 0, 0, 0, 0, 488, 474, 583, 110, 116, 228, 0,
        87, 234, -389, -19, -128, -295, 46, -35, -434, -42, -101, 0, 0, 0, 0, 0,
        0, 0, 0, 0, 0, 0, 0, 0, 0, 0, 0, 0, 0, 0, 0, 0,
        0, 0, 0, 0, 0, 0, -63, -55, -74, 179, 188, 191, -27, -32, -35, -5,
        -61, -273, 105, 48, -207, 164, 85, -160, 604, 307, 471, 420, 178, 314, 698, 424,
        574, -238, -255, -155, -410, -404, -301, -215, -249, -158, -131, 19, 311, -233, 87, 32,
        -211, 21, -231, -123, -27, 310, -400, -196, 85, -405, -63, 145, 10, 10, 17, -1,
        -2, 2, 4, 7, 8, 0, 0, 0, 0, 0, 0, 0, 0, 0, -878, -401,
        136, -766, -390, 69, -514, -202, 119, -121, -41, -15, -87, -10, -13, -43, 7, 6,
        -31, -305, -259, -60, -112, -322, 26, 193, -96, -43, 36, 196, 29, 232, 24, -18,
        123, 184, 386, -179, -172, -223, -360, 465, -137, 46, 326, 682, 85, -227, 453, 243,
        107, 73, 77, 158, 0, 0, 0, 0, 0, 0, 0, 0, 0, 0, 0, 0,
        0, 0, 0, 0, 0, 0, 450, 182, -145, 453, 307, 249, 474, 263, -219, 49,
        215, 751, -720, 52, 75, -1027, -970, 52, 183, 511, 249, 193, 310, 276, -15, 369,
        230, -91, -245, 79, 24, -219, -95, 78, -41, 24, 0, 0, 0, 0, 0, 0,
        0, 0, 0, 0, 0, 0, 0, 0, 0, 0, 0, 0, 51, 46, 8, 91,
        145, 187, -258, -97, 132, 0, 0, 0, 0, 0, 0, 0, 0, 0, -89, -504,
        -250, -46, 571, -264, -541, 40, 335, 271, -224, 92, -552, 424, 402, -71, 193, -138,
        0, 0, 0, 0, 0, 0, 0, 0, 0, 306, 95, 589, 348, 198, 175, 175,
        59, 181, 67, -421, -533, -77, -81, -47, 391, 550, 319, 0, 0, 0, 0, 0,
        0, 0, 0, 0, 0, 0, 0, 0, 0, 0, 0, 0, 0, 0, 0, 0,
        0, 0, 0, 0, 0, 0, -541, -447, -275, 29, 102, 165, -80, -75, -20, 765,
        423, 636, -452, 371, 316, -457, 593, 592, -255, -70, 177, -324, -229, 191, -21, 5,
        284, 240, 274, 1276, -737, -944, 190, -962, -601, 101, 679, -63, 512, -47, 218, 289,
        143, 199, 130, 450, 253, 519, 30, -418, 113, 66, -272, -118, -80, -78, -95, -3,
        -3, -19, -66, -28, -8, -17, -19, -30, -2, -4, -18, 1, 2, -10, -180, -109,
        78, -87, -211, -38, -365, -161, -57, 345, 278, -49, 277, 253, -31, 335, 139, 39,
        228, 231, 153, 79, -196, -102, 94, -144, -99, 1, 215, 67, 109, 384, -56, -50,
        128, -23, -18, -231, -545, 350, 127, -325, 215, -9, -740, 17, -279, -103, 33, -199,
        -220, -58, 3, -149, 0, 0, 0, 0, 0, 0, 0, 0, 0, 0, 0, 0,
        0, 0, 0, 0, 0, 0, -131, -307, -122, 51, -207, -132, 16, -47, -41, 353,
        289, 322, 44, 66, -19, 105, 228, 57, -11, -178, -191, -305, 191, -351, -17, -32,
        454, 16, -42, 403, -83, -117, 216, -148, -221, 147, 0, 0, 0, 0, 0, 0,
        0, 0, 0, 0, 0, 0, 0, 0, 0, 0, 0, 0, 3, -8, -12, -58,
        -33, -1, -169, -25, 111, 0, 0, 0, 0, 0, 0, 0, 0, 0, -400, -66,
        -426, 50, 50, -106, 116, -144, 498, 117, -180, -159, 210, -42, -213, 221, -127, -116,
        0, 0, 0, 0, 0, 0, 0, 0, 0, -265, -40, 57, -86, -8, -11, 97,
        54, 41, -38, -70, -164, 106, -130, -413, -144, -229, -327, 0, 0, 0, 0, 0,
        0, 0, 0, 0, 0, 0, 0, 0, 0, 0, 0, 0, 0, 0, 0, 0,
        0, 0, 0, 0, 0, 0, -336, -328, -77, -298, -268, -110, -214, -80, -9, 339,
        99, -95, 68, -175, -299, 24, -15, -204, -150, 11, -90, -276, -150, -166, -246, -155,
        -246, -28, 66, 671, -103, -199, 263, -128, -48, 468, -216, -180, 89, 92, -563, 4,
        73, -146, -314, 37, -135, -87, -86, -65, -175, 256, -69, 11, -58, -47, -42, 29,
        44, 21, -29, -3, 11, 5, 2, 0, -3, -6, -11, -5, -7, -11, 298, 0,
        -268, 191, -62, -386, 82, -19, -126, 44, 78, 102, 133, -39, -101, 232, 53, -230,
        527, 383, 180, 292, 32, -353, 137, -103, -136, -51, -96, 103, 347, 72, -8, 294,
        33, 72, -344, -272, -320, 313, 231, -564, 117, -61, -419, 101, 104, -664, 198, -141,
        -357, -135, -140, -377, 0, 0, 0, 0, 0, 0, 0, 0, 0, 0, 0, 0,
        0, 0, 0, 0, 0, 0, -497, -428, -194, -508, -217, 144, -493, -221, -167, 409,
        30, -198, 533, -130, -225, 497, -24, -16, 256, -270, -402, 393, -154, -168, -218, 23,
        245, 188, -32, 269, 32, 17, 93, -144, -129, -8, 0, 0, 0, 0, 0, 0,
        0, 0, 0, 0, 0, 0, 0, 0, 0, 0, 0, 0, -76, -9, -50, -83,
        -33, -37, -83, 9, 67, 0, 0, 0, 0, 0, 0, 0, 0, 0, -1173, -129,
        -356, 136, -31, -273, 7, -49, 144, 408, 65, -418, 219, 18, -504, 507, -211, -279,
        0, 0, 0, 0, 0, 0, 0, 0, 0, -531, -468, -63, -133, -239, 107, -21,
        -104, 44, 89, -92, -273, -105, -246, -250, -276, -472, -437, 0, 0, 0, 0, 0,
        0, 0, 0, 0, 0, 0, 0, 0, 0, 0, 0, 0, 0, 0, 0, 0,
        0, 0, 0, 0, 0, 0, -527, -593, -564, -169, -206, -2, -197, -31, 39, 93,
        334, 269, -116, -208, -310, -733, -343, -166, 524, 31, -122, 288, -219, -250, 337, -52,
        -126, 421, 94, -80, 170, -195, -512, 251, 148, -255, -18, 388, -179, -157, -94, -435,
        -25, -30, -413, 219, 156, 139, 140, -701, -159, 319, 165, 119, -12, 14, 30, 5,
        18, 16, -4, 15, 29, 11, 7, 9, 0, -4, -3, -4, -8, -6, 572, 8,
        110, 361, -229, -164, 302, -221, -312, -133, 222, 117, -335, -16, -83, -228, -113, -387,
        459, 635, 311, 240, 495, 294, -7, 373, -123, -1931, -1232, -1786, -1013, -825, -1559, -1556,
        -1464, -1927, -537, -395, 835, 79, 856, 372, -1324, -476, -16, -83, 218, 411, -284, 157,
        156, -807, -161, 0, 0, 0, 0, 0, 0, 0, 0, 0, 0, 0, 0, 0,
        0, 0, 0, 0, 0, 0, -476, -411, -689, -38, 174, -110, 413, 102, -175, -618,
        -747, -948, -121, 101, -254, -759, -475, -828, 369, 168, -633, -293, 599, -679, -177, 309,
        -982, 191, -70, -249, -79, -259, -219, -124, -449, -337, 0, 0, 0, 0, 0, 0,
        0, 0, 0, 0, 0, 0, 0, 0, 0, 0, 0, 0, -10, -112, 1, -330,
        -365, -366, 233, 174, 25, 0, 0, 0, 0, 0, 0, 0, 0, 0, -869, -504,
        199, -261, -41, 122, -987, -456, -864, -308, 1164, 986, -212, 343, 195, -1118, 40, -1038,
        0, 0, 0, 0, 0, 0, 0, 0, 0, -911, -472, -918, 288, 340, 201, -288,
        -345, -916, -437, 645, 151, -436, 302, -146, -1163, -146, -590, 0, 0, 0, 0, 0,
        0, 0, 0, 0, 0, 0, 0, 0, 0, 0, 0, 0, 0, 1, 1, 3,
        0, 0, 2, 0, 0, 2, -1005, -928, -1280, -768, -635, -649, -368, -325, -253, -998,
        109, 105, -109, 694, 523, -941, -134, -565, 115, 130, -66, 253, 277, 129, 9, 210,
        -71, -843, -500, -1314, 226, 440, -407, 159, 423, -526, -782, 123, -821, 725, 638, 981,
        -339, 72, -341, -539, 650, -610, 2, 868, 65, -308, 104, -486, 151, 227, 175, -37,
        0, 11, -211, -143, -183, 71, 76, 111, 20, 26, 73, 25, 26, 68, 89, 446,
        -313, -45, 1431, 273, -1193, 86, -1090, 109, -183, -189, -142, -327, -89, -396, -586, -224,
        -25, 33, -111, -258, 107, 3, 82, 449, 121, -359, -63, -234, -108, -255, -333, -520,
        -339, -621, 182, -90, -508, 528, -540, 74, -484, 143, 51, -50, 112, 333, 54, 187,
        75, 119, 196, 88, 0, 0, 0, 0, 0, 0, 0, 0, 0, 0, 0, 0,
        0, 0, 0, 0, 0, 0, -536, -431, -718, -27, -210, -102, 259, 63, 111, -501,
        -597, -681, 54, 12, -436, -924, -934, -1160, -134, -197, -647, 498, 540, -300, 56, 709,
        -1239, -6, -58, -1598, -176, -279, -1576, -42, -387, -1668, 0, 0, 0, 0, 0, 0,
        0, 0, 0, 0, 0, 0, 0, 0, 0, 0, 0, 0, -54, -120, -123, -88,
        -56, -109, -1139, -996, -1286, 0, 0, 0, 0, 0, 0, 0, 0, 0, -463, -83,
        -592, 95, 245, -159, -690, -826, -216, -128, -50, 944, -515, 790, -225, 553, 569, -160,
        0, 0, 0, 0, 0, 0, 0, 0, 0, -714, -872, -574, -128, -440, -154, 257,
        375, -50, -254, 26, -50, -506, -10, -637, -373, -293, -503, 0, 0, 0, 0, 0,
        0, 0, 0, 0, 0, 0, 0, 0, 0, 0, 0, 0, 0, -3, -4, -2,
        -4, -5, -3, -3, -4, -2, -674, -498, -1114, -196, -161, -350, -279, -309, -470, -167,
        521, 299, -192, -392, 281, -311, 216, -373, 76, 70, 162, -206, 114, -220, -154, -66,
        -161, -752, 250, -1072, -116, 675, -616, -973, 113, -1167, -85, -419, -545, -513, 378, 137,
        244, 85, 621, -307, 134, -160, 209, 439, -413, 735, -223, -50, 239, 304, 283, -64,
        -82, -44, -157, -79, -138, 34, 33, 56, 8, 8, 36, 31, 30, 53, 830, -213,
        -458, -13, 607, -814, 24, 157, -653, 447, -55, -39, 241, 363, -298, 520, 69, 14,
        149, 86, 213, -48, 36, 243, -66, 100, 212, 555, 577, 815, 715, 413, 627, 622,
        166, 456, -730, -133, -58, -243, 182, 274, -490, -200, -82, -38, -365, -170, 184, -37,
        5, 255, -14, 9, 0, 0, 0, 0, 0, 0, 0, 0, 0, 0, 0, 0,
        0, 0, 0, 0, 0, 0, 189, -43, -17, 28, -128, -138, 45, -268, -282, 1162,
        667, 461, 920, 617, 531, 730, 570, 658, -200, -182, -435, 72, 286, 43, -236, 24,
        -535, -3, -30, 497, -12, -56, 485, -8, -60, 512, 0, 0, 0, 0, 0, 0,
        0, 0, 0, 0, 0, 0, 0, 0, 0, 0, 0, 0, -15, -29, -28, 42,
        56, 92, 262, 254, 283, 0, 0, 0, 0, 0, 0, 0, 0, 0, -1070, -687,
        -799, -814, -413, -614, -1399, -867, -1235, -51, 495, 218, 174, 705, 244, -199, 392, -105,
        0, 0, 0, 0, 0, 0, 0, 0, 0, -434, -416, -880, 278, 237, -117, 708,
        499, 33, 633, 514, 479, 525, 715, 858, 163, 391, 477, 0, 0, 0, 0, 0,
        0, 0, 0, 0, 0, 0, 0, 0, 0, 0, 0, 0, 0, 0, 0, 0,
        0, 0, 0, 0, 0, 0, 684, 861, 1054, 658, 942, 1133, 563, 787, 943, 116,
        436, -86, 281, 586, 192, -308, 128, -408, -12, -9, 1, -5, 1, 4, -9, 2,
        15, 43, 171, 254, 5, 147, 250, -29, 143, 267, 35, -125, -351, 19, 33, -106,
        -200, -131, -94, -189, -239, -677, 41, -71, -443, -90, -432, -863, -4, -4, -3, -5,
        -5, -5, 2, 3, 4, 0, 0, 0, 0, 0, 0, 0, 0, 0, 247, -57,
        -1084, 249, 216, -544, -339, -104, -774, -122, -253, -271, -214, -281, -329, -283, -376, -402,
        345, 737, 611, -292, 17, 466, 248, 184, 492, 231, -286, 13, 250, -191, -287, -289,
        -142, -193, 266, -238, 529, 269, 885, 98, -596, 683, 208, -171, -501, -343, -47, -368,
        -110, 55, 196, -93, 0, 0, 0, 0, 0, 0, 0, 0, 0, 0, 0, 0,
        0, 0, 0, 0, 0, 0, -115, -887, 152, -231, -538, 530, 299, 102, 389, 1099,
        59, 198, 575, -780, -196, 415, -135, -241, 181, -51, -723, -243, 128, -395, -336, 671,
        170, 41, 258, 5, -217, -114, -263, -215, -314, -406, 0, 0, 0, 0, 0, 0,
        0, 0, 0, 0, 0, 0, 0, 0, 0, 0, 0, 0, -63, -67, -54, -59,
        -71, -180, -189, -122, -346, 0, 0, 0, 0, 0, 0, 0, 0, 0, 86, -561,
        7, -677, -367, 486, 750, 514, 18, -48, 286, -607, 626, 129, -256, 640, 639, -1091,
        0, 0, 0, 0, 0, 0, 0, 0, 0, -608, -716, -651, -692, -62, -246, -398,
        46, -50, -706, -122, 486, -445, 490, 968, -557, 426, 807, 0, 0, 0, 0, 0,
        0, 0, 0, 0, 0, 0, 0, 0, 0, 0, 0, 0, 0, -1, -1, -1,
        -1, -2, -1, -1, -1, -1, -254, -315, -153, -235, -58, -237, -216, 55, -206, -407,
        -471, 33, -955, -331, 296, 389, 191, 9, -204, 129, -6, -251, 48, -17, -558, -161,
        -174, 995, 260, -53, -198, -236, -257, -284, -296, -722, -289, 362, 93, -217, 182, 819,
        -145, 711, 345, 273, -147, -24, -152, 491, -33, 546, 454, 453, -110, -130, -104, 89,
        86, 78, -74, -80, -107, 5, 8, 25, -8, -4, 9, 3, 4, 15, -609, 163,
        63, -450, 405, -61, -557, 588, 103, 91, -291, 70, -9, -1456, -131, 114, -295, 161};

const int conv2_b[32] = {
        -3736927, 3038249, 17314774, 32211290, 7492767, -11907405, 36437264, -7355989, 2067597, 13889131, -3742566, -4857742, -16, -3886431, -225408, 7339293,
        21265044, 16580146, 28863548, 24920294, 40059672, 34774104, 18762540, 18574168, -2332377, -13364302, 16629687, 24496254, 26025478, 21532926, 4762149, 28122824};

const short conv3_w[864] = {
        -212, -475, 250, -563, -1053, 74, -218, -398, 338, 282, -18, -204, 315, 93, -317, -39,
        -186, -440, 188, -620, 390, -205, -710, -952, -180, -121, -118, -14, -271, -118, -135, -560,
        -52, -103, -146, 131, -546, -413, -21, -674, -286, -284, 217, -354, 1621, -803, 709, 1199,
        229, 997, 460, -873, -294, -529, -30, -380, -202, -164, -942, 287, 57, 27, 406, 883,
        127, -61, 759, -41, -431, 875, 244, 9, -101, 422, 100, -682, 482, -602, -12, 192,
        341, 238, 868, 447, -397, 131, -343, -748, -328, -366, 508, 724, 1297, -1613, 1723, 360,
        -1314, 270, -1299, 949, -1092, -1784, -33, -185, -1464, 1333, 1688, 143, 154, 39, 131, 401,
        273, 337, 313, 216, 156, -1017, -364, -842, 793, 1042, 164, 904, 1578, 557, 169, 80,
        -32, 345, 273, 567, -58, 467, 528, -482, 38, 98, -574, 113, 13, -208, -483, -85,
        547, 756, 33, 248, -1307, -202, -449, -1113, -496, -290, -248, -147, -381, 58, -217, -531,
        108, -401, -286, -842, -197, -889, -1718, -529, -194, -679, -180, -1196, -1112, 579, -382, 225,
        400, -517, 243, 865, -263, -84, -492, -214, -1915, -86, -187, -570, -536, 1229, -294, -58,
        293, -1009, -1434, 341, 57, -836, -292, 169, 312, -61, 513, 949, 232, 642, 521, -282,
        -463, -294, -213, -904, -923, 25, -59, -488, -327, -278, -295, -376, -325, -503, -415, -178,
        -475, 271, 429, 104, 223, 48, 279, -479, -165, -63, -216, -269, 233, -328, -356, 310,
        -123, -109, 483, -687, -625, 217, -568, -272, 366, -326, 104, 43, -1029, -878, -1445, -537,
        -860, -1008, -332, -312, -905, -845, -827, -1250, -285, -626, -471, -780, -892, -1116, -576, -850,
        -475, -516, -844, -825, -584, -877, -470, 296, -27, 9, 452, -1086, -393, 422, -492, 202,
        397, 304, 315, 72, -276, -104, -41, -114, -47, 125, 4, -222, 352, 140, -221, 14,
        -169, -347, 182, 495, 103, 668, -337, 28, 363, 672, 123, 18, -519, -324, -332, -1228,
        -587, -150, -480, -173, -2017, -764, 962, -774, -571, 820, 87, 525, 2527, 437, -582, 828,
        254, -384, 916, 269, 287, 60, -291, -886, -522, -623, -1511, -330, -103, -474, 32, 790,
        244, -109, 1101, 607, 69, 997, 360, 45, 62, 284, 9, -607, -207, -364, -497, 137,
        119, 351, 779, 1220, -508, -37, 124, -684, -640, -329, -1076, -557, 481, -1094, 676, -49,
        -1746, -734, -729, 578, 444, 227, -105, 914, -785, -876, 563, -1276, 44, -1, 103, 232,
        191, 302, 181, 180, 212, -748, -892, -917, 249, -547, -407, -15, -455, 318, -37, -414,
        63, -181, 23, -48, 93, -79, 127, -116, -242, -386, -159, 102, -73, 264, 456, 13,
        -239, 684, 229, 407, -854, -314, -1181, -1348, -238, -556, -684, -623, -148, -287, -89, -267,
        177, -148, -1, -397, -59, -325, -729, -68, -64, -173, -33, -327, -1137, 17, -353, -1107,
        21, -701, 125, -286, -546, -1217, -487, -972, -3392, -959, -599, -1412, -853, -98, -66, -378,
        143, -1911, -205, -107, -922, -159, -686, -304, -418, -502, -67, 54, -165, 177, 150, -26,
        178, 19, -371, -426, -257, -281, 126, 33, -25, 139, 44, 38, 148, -5, -36, 83,
        -37, 227, 536, 725, 217, 415, 594, -568, 95, 192, -16, -92, 336, -286, -523, 168,
        34, -20, 335, 202, -37, -113, -253, -889, -115, 320, 82, 86, -992, -1464, -1410, -844,
        -1594, -1310, -467, -729, -860, -523, -703, -1056, -357, -878, -551, -695, -946, -1159, 96, 61,
        114, 326, -71, 97, 64, 231, 138, 537, 178, -69, 42, -1356, -892, 223, -740, -366,
        691, 783, 362, 500, 385, 48, 25, -19, -257, 214, 119, 61, 464, 363, 108, 305,
        74, -155, 910, 873, 21, 908, -523, 773, 777, 919, 983, -211, -1029, -488, -847, -2391,
        -1063, -398, -1083, -414, -1995, -388, 1242, -830, -429, 777, -243, 429, 1712, -813, -865, 1427,
        -1081, -1060, 933, -1355, -443, 176, -687, -719, -298, -1066, -1489, -140, -438, -288, 249, 642,
        75, -98, 1274, 613, 183, 813, 212, -130, 750, -239, -408, -349, -1048, -213, -267, 475,
        -179, 989, 1140, 973, -238, -25, 12, -1381, -1253, -529, -1131, 41, 553, -1229, 956, 867,
        516, 868, 241, -347, 556, 808, -79, 907, 595, -1578, -317, -213, -7, -157, -74, 8,
        73, 65, -7, 34, 65, 1220, -60, 1961, 117, -859, 150, -173, -1820, -497, -230, 101,
        -248, -17, -148, -269, 47, -245, -76, 539, -756, -311, 238, -70, -987, 652, 408, -750,
        174, -128, 425, 295, -1071, -1299, -1490, -1277, -1616, -313, -524, -369, -166, -375, 265, 136,
        108, 137, 156, 280, 141, 345, 405, 538, 169, 461, 308, 91, -765, -1355, 48, -2007,
        -218, 510, -1217, -902, -954, -1253, -833, -856, -3785, -1449, -457, -969, -1129, -833, -1373, -98,
        -694, -851, -536, 523, -1275, -348, -818, -866, -742, -835, -804, -890, -645, -370, -370, -89,
        67, -267, -678, -590, 40, -466, 381, 535, -68, -39, -142, -28, 320, -49, -50, -55,
        -145, -167, 216, 117, 103, 354, 137, -364, 173, 587, -19, 11, -32, -452, -768, -149,
        -103, -262, 159, 431, -623, 81, 138, -1343, 134, 216, -565, 556, -995, -958, -984, -484,
        -1005, -991, -623, -498, -914, 138, 312, -120, 232, -201, -3, -98, 117, -488, 420, 657,
        601, 712, 298, 541, 245, 533, 517, 10, 42, 200, -778, -1248, -494, -366, -844, -171};

const int conv3_b[3] = {-43076016, -28592548, -45619860};

#endif //INFERENCE_QZERODCE_WEIGHT_H
